Language model created by QuickLM on Wed May  2 16:19:07 EDT 2018
Copyright (c) 1996-2010 Carnegie Mellon University and Alexander I. Rudnicky

The model is in standard ARPA format, designed by Doug Paul while he was at MITRE.

The code that was used to produce this language model is available in Open Source.
Please visit http://www.speech.cs.cmu.edu/tools/ for more information

The (fixed) discount mass is 0.5. The backoffs are computed using the ratio method.
This model based on a corpus of 1 sentences and 73 words

\data\
ngram 1=73
ngram 2=119
ngram 3=131

\1-grams:
-2.4409 </s> -0.3010
-2.4409 <s> -0.2995
-1.7419 A -0.2817
-2.4409 AFTERNOON -0.2931
-2.1399 AM -0.2979
-1.9638 AND -0.2963
-2.4409 ANGRY -0.2979
-1.8388 ARE -0.2751
-2.4409 BACKWARD -0.2931
-2.1399 BAD -0.2866
-2.4409 BE -0.2995
-2.1399 BEST -0.2979
-1.8388 BOY -0.2866
-2.4409 BREAK -0.2979
-1.9638 CAN -0.2883
-2.4409 DEVELOP -0.2979
-2.4409 DO -0.2963
-2.4409 DOING -0.2995
-2.4409 DOWN -0.2979
-2.4409 FORWARD -0.2931
-2.4409 FROM -0.2995
-1.9638 FULL -0.2883
-2.1399 GO -0.2947
-1.7419 GOOD -0.2866
-2.1399 HALF -0.2931
-2.4409 HAPPY -0.2963
-2.4409 HELLO -0.2995
-2.4409 HEY -0.2979
-2.4409 HI -0.2995
-2.1399 I -0.2979
-2.1399 IN -0.2947
-2.1399 IS -0.2931
-2.4409 JOB -0.2995
-2.4409 KINOVA -0.2899
-2.4409 LAZY -0.2995
-2.1399 LEFT -0.2883
-2.4409 LONGFEI -0.2995
-2.4409 MAKE -0.2931
-2.1399 MEANS -0.2931
-2.1399 MODE -0.2963
-2.4409 MORNING -0.2931
-1.7419 MOVE -0.2899
-2.1399 MOVO -0.2947
-2.4409 NIGHT -0.2979
-1.9638 NOT -0.2963
-2.4409 OFFICIAL -0.2979
-1.9638 OR -0.2883
-2.4409 PERSON -0.2979
-2.4409 PLEASE -0.2947
-2.4409 REST -0.2979
-2.1399 RIGHT -0.2850
-2.4409 ROBOTICIST -0.2979
-2.1399 SAY -0.2979
-2.1399 SLEEP -0.2963
-2.4409 SLOW -0.2995
-2.4409 SMART -0.2947
-2.1399 SOMETHING -0.2899
-1.7419 SPEED -0.2734
-2.4409 STUPID -0.2947
-2.1399 SWITCH -0.2947
-2.1399 TAKE -0.2931
-1.8388 THE -0.2947
-1.8388 TO -0.2947
-1.9638 TURN -0.2834
-2.4409 UP -0.2979
-2.4409 WHAT -0.2979
-2.4409 WHO -0.2979
-2.4409 WITH -0.2963
-2.1399 WORLD -0.2883
-2.4409 WRONG -0.2899
-1.5958 YOU -0.2883
-2.4409 YOUR -0.2995
-2.4409 ZHAO -0.2947

\2-grams:
-0.3010 <s> HELLO 0.0000
-1.0000 A BAD -0.1761
-1.0000 A BREAK 0.0000
-1.0000 A FULL -0.2218
-1.0000 A GOOD -0.2553
-1.0000 A REST 0.0000
-0.3010 AFTERNOON GOOD -0.2553
-0.6021 AM LONGFEI 0.0000
-0.6021 AM SMART 0.0000
-0.7782 AND MAKE 0.0000
-0.4771 AND SAY 0.0000
-0.3010 ANGRY TAKE 0.0000
-0.9031 ARE A -0.2553
-0.9031 ARE FROM 0.0000
-0.9031 ARE NOT -0.2218
-0.9031 ARE YOU -0.2688
-0.3010 BACKWARD MOVE -0.2553
-0.6021 BAD BOY -0.2430
-0.6021 BAD GOOD -0.2553
-0.3010 BE LAZY 0.0000
-0.6021 BEST PERSON 0.0000
-0.6021 BEST ROBOTICIST 0.0000
-0.9031 BOY I 0.0000
-0.9031 BOY NOT -0.2218
-0.9031 BOY OR -0.2218
-0.9031 BOY WHAT 0.0000
-0.3010 BREAK TAKE 0.0000
-0.4771 CAN MOVE -0.2041
-0.7782 CAN TURN -0.2218
-0.3010 DEVELOP MODE 0.0000
-0.3010 DO NOT -0.2218
-0.3010 DOING YOUR 0.0000
-0.3010 DOWN MEANS -0.1761
-0.3010 FORWARD MOVE -0.2553
-0.3010 FROM KINOVA 0.0000
-0.4771 FULL SPEED -0.2041
-0.7782 FULL TURN -0.2218
-0.3010 GO TO -0.1761
-1.0000 GOOD AFTERNOON 0.0000
-1.0000 GOOD BOY -0.2430
-1.0000 GOOD MORNING 0.0000
-1.0000 GOOD NIGHT 0.0000
-1.0000 GOOD SWITCH 0.0000
-0.3010 HALF SPEED -0.2041
-0.3010 HAPPY OR -0.2218
-0.3010 HELLO HI 0.0000
-0.3010 HEY MOVO -0.1761
-0.3010 HI HEY 0.0000
-0.3010 I AM 0.0000
-0.3010 IN THE -0.1761
-0.6021 IS THE -0.1761
-0.6021 IS WRONG 0.0000
-0.3010 JOB DO 0.0000
-0.3010 KINOVA YOU -0.1963
-0.3010 LAZY PLEASE 0.0000
-0.6021 LEFT MOVE -0.2553
-0.6021 LEFT TURN -0.2218
-0.3010 LONGFEI ZHAO 0.0000
-0.3010 MAKE A -0.2553
-0.6021 MEANS FULL -0.1249
-0.6021 MEANS HALF 0.0000
-0.3010 MODE AND -0.1249
-0.3010 MORNING GOOD -0.2553
-1.0000 MOVE BACKWARD 0.0000
-1.0000 MOVE FORWARD 0.0000
-1.0000 MOVE LEFT -0.1761
-1.0000 MOVE RIGHT -0.1761
-1.0000 MOVE WITH 0.0000
-0.6021 MOVO GO 0.0000
-0.6021 MOVO I 0.0000
-0.3010 NIGHT MOVO -0.1761
-0.7782 NOT BE 0.0000
-0.7782 NOT DOING 0.0000
-0.7782 NOT STUPID 0.0000
-0.3010 OFFICIAL MODE 0.0000
-0.7782 OR A -0.2553
-0.7782 OR ANGRY 0.0000
-0.7782 OR HALF 0.0000
-0.3010 PERSON IN 0.0000
-0.3010 PLEASE ARE -0.2430
-0.3010 REST GO 0.0000
-0.6021 RIGHT AND -0.2218
-0.6021 RIGHT YOU -0.1963
-0.3010 ROBOTICIST IN 0.0000
-0.3010 SAY SOMETHING 0.0000
-0.6021 SLEEP SWITCH 0.0000
-0.6021 SLEEP WHO 0.0000
-0.3010 SLOW DOWN 0.0000
-0.3010 SMART BOY -0.2430
-0.6021 SOMETHING BAD -0.1761
-0.6021 SOMETHING GOOD -0.2553
-1.0000 SPEED OR -0.2218
-1.0000 SPEED SLOW 0.0000
-1.0000 SPEED SPEED -0.2553
-1.0000 SPEED UP 0.0000
-1.0000 SPEED YOU -0.1963
-0.3010 STUPID BOY -0.2430
-0.3010 SWITCH TO -0.1761
-0.3010 TAKE A -0.2041
-0.6021 THE BEST 0.0000
-0.6021 THE WORLD 0.0000
-0.9031 TO DEVELOP 0.0000
-0.9031 TO OFFICIAL 0.0000
-0.6021 TO SLEEP 0.0000
-0.7782 TURN LEFT -0.1761
-0.7782 TURN RIGHT -0.1761
-0.7782 TURN YOU -0.1963
-0.3010 UP MEANS -0.1761
-0.3010 WHAT IS -0.1761
-0.3010 WHO IS -0.1761
-0.3010 WITH FULL -0.1249
-0.6021 WORLD </s> -0.3010
-0.6021 WORLD YOU -0.1963
-0.3010 WRONG YOU -0.1963
-0.6690 YOU ARE -0.0969
-0.6690 YOU CAN 0.0000
-1.1461 YOU HAPPY 0.0000
-0.3010 YOUR JOB 0.0000
-0.3010 ZHAO THE -0.1761

\3-grams:
-0.3010 <s> HELLO HI
-0.3010 A BAD BOY
-0.3010 A BREAK TAKE
-0.3010 A FULL TURN
-0.3010 A GOOD BOY
-0.3010 A REST GO
-0.3010 AFTERNOON GOOD NIGHT
-0.3010 AM LONGFEI ZHAO
-0.3010 AM SMART BOY
-0.3010 AND MAKE A
-0.3010 AND SAY SOMETHING
-0.3010 ANGRY TAKE A
-0.3010 ARE A GOOD
-0.3010 ARE FROM KINOVA
-0.3010 ARE NOT DOING
-0.3010 ARE YOU HAPPY
-0.3010 BACKWARD MOVE LEFT
-0.3010 BAD BOY I
-0.3010 BAD GOOD MORNING
-0.3010 BE LAZY PLEASE
-0.3010 BEST PERSON IN
-0.3010 BEST ROBOTICIST IN
-0.3010 BOY I AM
-0.3010 BOY NOT STUPID
-0.3010 BOY OR A
-0.3010 BOY WHAT IS
-0.3010 BREAK TAKE A
-0.6021 CAN MOVE FORWARD
-0.6021 CAN MOVE WITH
-0.3010 CAN TURN LEFT
-0.3010 DEVELOP MODE AND
-0.3010 DO NOT BE
-0.3010 DOING YOUR JOB
-0.3010 DOWN MEANS HALF
-0.3010 FORWARD MOVE BACKWARD
-0.3010 FROM KINOVA YOU
-0.6021 FULL SPEED OR
-0.6021 FULL SPEED YOU
-0.3010 FULL TURN YOU
-0.3010 GO TO SLEEP
-0.3010 GOOD AFTERNOON GOOD
-0.3010 GOOD BOY OR
-0.3010 GOOD MORNING GOOD
-0.3010 GOOD NIGHT MOVO
-0.3010 GOOD SWITCH TO
-0.6021 HALF SPEED SLOW
-0.6021 HALF SPEED SPEED
-0.3010 HAPPY OR ANGRY
-0.3010 HELLO HI HEY
-0.3010 HEY MOVO I
-0.3010 HI HEY MOVO
-0.6021 I AM LONGFEI
-0.6021 I AM SMART
-0.3010 IN THE WORLD
-0.3010 IS THE BEST
-0.3010 IS WRONG YOU
-0.3010 JOB DO NOT
-0.3010 KINOVA YOU CAN
-0.3010 LAZY PLEASE ARE
-0.3010 LEFT MOVE RIGHT
-0.3010 LEFT TURN RIGHT
-0.3010 LONGFEI ZHAO THE
-0.3010 MAKE A FULL
-0.3010 MEANS FULL SPEED
-0.3010 MEANS HALF SPEED
-0.3010 MODE AND SAY
-0.3010 MORNING GOOD AFTERNOON
-0.3010 MOVE BACKWARD MOVE
-0.3010 MOVE FORWARD MOVE
-0.3010 MOVE LEFT MOVE
-0.3010 MOVE RIGHT YOU
-0.3010 MOVE WITH FULL
-0.3010 MOVO GO TO
-0.3010 MOVO I AM
-0.3010 NIGHT MOVO GO
-0.3010 NOT BE LAZY
-0.3010 NOT DOING YOUR
-0.3010 NOT STUPID BOY
-0.3010 OFFICIAL MODE AND
-0.3010 OR A BAD
-0.3010 OR ANGRY TAKE
-0.3010 OR HALF SPEED
-0.3010 PERSON IN THE
-0.3010 PLEASE ARE YOU
-0.3010 REST GO TO
-0.3010 RIGHT AND MAKE
-0.3010 RIGHT YOU CAN
-0.3010 ROBOTICIST IN THE
-0.6021 SAY SOMETHING BAD
-0.6021 SAY SOMETHING GOOD
-0.3010 SLEEP SWITCH TO
-0.3010 SLEEP WHO IS
-0.3010 SLOW DOWN MEANS
-0.3010 SMART BOY NOT
-0.3010 SOMETHING BAD GOOD
-0.3010 SOMETHING GOOD SWITCH
-0.3010 SPEED OR HALF
-0.3010 SPEED SLOW DOWN
-0.3010 SPEED SPEED UP
-0.3010 SPEED UP MEANS
-0.3010 SPEED YOU ARE
-0.3010 STUPID BOY WHAT
-0.6021 SWITCH TO DEVELOP
-0.6021 SWITCH TO OFFICIAL
-0.6021 TAKE A BREAK
-0.6021 TAKE A REST
-0.6021 THE BEST PERSON
-0.6021 THE BEST ROBOTICIST
-0.6021 THE WORLD </s>
-0.6021 THE WORLD YOU
-0.3010 TO DEVELOP MODE
-0.3010 TO OFFICIAL MODE
-0.6021 TO SLEEP SWITCH
-0.6021 TO SLEEP WHO
-0.3010 TURN LEFT TURN
-0.3010 TURN RIGHT AND
-0.3010 TURN YOU CAN
-0.3010 UP MEANS FULL
-0.3010 WHAT IS WRONG
-0.3010 WHO IS THE
-0.3010 WITH FULL SPEED
-0.3010 WORLD YOU ARE
-0.3010 WRONG YOU ARE
-0.7782 YOU ARE A
-0.7782 YOU ARE FROM
-0.7782 YOU ARE NOT
-0.4771 YOU CAN MOVE
-0.7782 YOU CAN TURN
-0.3010 YOU HAPPY OR
-0.3010 YOUR JOB DO
-0.3010 ZHAO THE BEST

\end\
