Language model created by QuickLM on Fri Jun  8 10:22:34 EDT 2018
Copyright (c) 1996-2010 Carnegie Mellon University and Alexander I. Rudnicky

The model is in standard ARPA format, designed by Doug Paul while he was at MITRE.

The code that was used to produce this language model is available in Open Source.
Please visit http://www.speech.cs.cmu.edu/tools/ for more information

The (fixed) discount mass is 0.5. The backoffs are computed using the ratio method.
This model based on a corpus of 2 sentences and 5 words

\data\
ngram 1=5
ngram 2=5
ngram 3=4

\1-grams:
-0.9031 </s> -0.3010
-0.9031 <s> -0.2430
-0.9031 MOVO -0.2430
-1.2041 SORRY -0.2430
-1.2041 YES -0.2430

\2-grams:
-0.6021 <s> SORRY 0.0000
-0.6021 <s> YES 0.0000
-0.3010 MOVO </s> -0.3010
-0.3010 SORRY MOVO 0.0000
-0.3010 YES MOVO 0.0000

\3-grams:
-0.3010 <s> SORRY MOVO
-0.3010 <s> YES MOVO
-0.3010 SORRY MOVO </s>
-0.3010 YES MOVO </s>

\end\